svm_type c_svc
kernel_type rbf
gamma 2
nr_class 2
total_sv 42
rho 5.4419232558889821
label 1 -1
nr_sv 20 22
SV
35.534113175774657 1:0.53125 2:0.265625 3:0.329167 
25.380361215938649 1:0.463415 2:0.296875 3:0.314583 
128 1:0.47381 2:0.310937 3:0.308333 
128 1:0.122314 2:0.23125 3:0.2375 
128 1:0.104225 2:0.23125 3:0.170833 
128 1:0.136076 2:0.335938 3:0.147917 
128 1:0.15679 2:0.198437 3:0.275 
128 1:0.0496 2:0.096875 3:0.00625 
128 1:0.298148 2:0.503125 3:0.20625 
128 1:0.076875 2:0.192188 3:0.077083 
64.487522950222797 1:0.083117 2:0.2 3:0.066667 
74.13582062140226 1:0.502597 2:0.604688 3:0.197917 
128 1:0.428986 2:0.4625 3:0.25 
128 1:0.421127 2:0.467187 3:0.24375 
128 1:0.259509 2:0.660937 3:0.13125 
128 1:0.206667 2:0.532812 3:0.191667 
128 1:0.210651 2:0.55625 3:0.141667 
90.136116043095058 1:0.416783 2:0.93125 3:0.002083 
128 1:0.1216 2:0.475 3:0.002083 
127.35169972773365 1:0.104242 2:0.26875 3:0.0875 
-54.95720834222822 1:0.325556 2:0.457812 3:0.266667 
-128 1:0.186207 2:0.675 3:0.029167 
-128 1:0.06993 2:0.15625 3:0.185417 
-48.607471897250605 1:0.191026 2:0.232812 3:0.339583 
-9.937673010635292 1:0.009314 2:0.029687 3:0.2125 
-128 1:0.038462 2:0.15625 3:0.058333 
-128 1:0.181366 2:0.45625 3:0.202083 
-13.970884840158702 1:0.048617 2:0.192188 3:0.077083 
-128 1:0.420968 2:0.407813 3:0.29375 
-128 1:0.501786 2:0.439063 3:0.28125 
-128 1:0.369863 2:0.421875 3:0.272917 
-128 1:0.393846 2:0.4 3:0.283333 
-128 1:0.380597 2:0.398438 3:0.28125 
-128 1:0.085955 2:0.239063 3:0.097917 
-128 1:0.113483 2:0.315625 3:0.091667 
-128 1:0.094215 2:0.35625 3:0.10625 
-42.255010878525312 1:0.075152 2:0.3875 3:0.0125 
-128 1:0.400935 2:0.670313 3:0.208333 
-6.0330648336365806 1:0.418321 2:0.85625 3:0.14375 
-113.26431993173267 1:0.306283 2:0.914062 3:0.002083 
-128 1:0.047566 2:0.198437 3:0.054167 
-128 1:0.091943 2:0.303125 3:0.114583 
